digraph Tree {
node [shape=box, style="filled, rounded", color="black", fontname="helvetica"] ;
edge [fontname="helvetica"] ;
0 [label="X[1] <= 0.823\ngini = 0.091\nsamples = 4085\nvalue = [3890, 195]", fillcolor="#e68743"] ;
1 [label="X[1] <= 0.615\ngini = 0.043\nsamples = 3407\nvalue = [3332, 75]", fillcolor="#e6843d"] ;
0 -> 1 [labeldistance=2.5, labelangle=45, headlabel="True"] ;
2 [label="X[1] <= 0.457\ngini = 0.012\nsamples = 2379\nvalue = [2365, 14]", fillcolor="#e5823a"] ;
1 -> 2 ;
3 [label="X[15] <= 0.5\ngini = 0.001\nsamples = 1612\nvalue = [1611, 1]", fillcolor="#e58139"] ;
2 -> 3 ;
4 [label="gini = 0.0\nsamples = 1420\nvalue = [1420, 0]", fillcolor="#e58139"] ;
3 -> 4 ;
5 [label="X[5] <= 0.097\ngini = 0.01\nsamples = 192\nvalue = [191, 1]", fillcolor="#e5823a"] ;
3 -> 5 ;
6 [label="X[5] <= 0.096\ngini = 0.039\nsamples = 50\nvalue = [49, 1]", fillcolor="#e6843d"] ;
5 -> 6 ;
7 [label="gini = 0.0\nsamples = 49\nvalue = [49, 0]", fillcolor="#e58139"] ;
6 -> 7 ;
8 [label="gini = 0.0\nsamples = 1\nvalue = [0, 1]", fillcolor="#399de5"] ;
6 -> 8 ;
9 [label="gini = 0.0\nsamples = 142\nvalue = [142, 0]", fillcolor="#e58139"] ;
5 -> 9 ;
10 [label="X[13] <= 0.5\ngini = 0.033\nsamples = 767\nvalue = [754, 13]", fillcolor="#e5833c"] ;
2 -> 10 ;
11 [label="X[6] <= 0.151\ngini = 0.025\nsamples = 633\nvalue = [625, 8]", fillcolor="#e5833c"] ;
10 -> 11 ;
12 [label="X[1] <= 0.573\ngini = 0.153\nsamples = 12\nvalue = [11, 1]", fillcolor="#e78c4b"] ;
11 -> 12 ;
13 [label="gini = 0.0\nsamples = 9\nvalue = [9, 0]", fillcolor="#e58139"] ;
12 -> 13 ;
14 [label="X[6] <= 0.146\ngini = 0.444\nsamples = 3\nvalue = [2, 1]", fillcolor="#f2c09c"] ;
12 -> 14 ;
15 [label="gini = 0.0\nsamples = 2\nvalue = [2, 0]", fillcolor="#e58139"] ;
14 -> 15 ;
16 [label="gini = 0.0\nsamples = 1\nvalue = [0, 1]", fillcolor="#399de5"] ;
14 -> 16 ;
17 [label="X[6] <= 0.281\ngini = 0.022\nsamples = 621\nvalue = [614, 7]", fillcolor="#e5823b"] ;
11 -> 17 ;
18 [label="X[1] <= 0.481\ngini = 0.007\nsamples = 295\nvalue = [294, 1]", fillcolor="#e5813a"] ;
17 -> 18 ;
19 [label="X[5] <= 0.13\ngini = 0.043\nsamples = 46\nvalue = [45, 1]", fillcolor="#e6843d"] ;
18 -> 19 ;
20 [label="X[5] <= 0.129\ngini = 0.105\nsamples = 18\nvalue = [17, 1]", fillcolor="#e78845"] ;
19 -> 20 ;
21 [label="gini = 0.0\nsamples = 17\nvalue = [17, 0]", fillcolor="#e58139"] ;
20 -> 21 ;
22 [label="gini = 0.0\nsamples = 1\nvalue = [0, 1]", fillcolor="#399de5"] ;
20 -> 22 ;
23 [label="gini = 0.0\nsamples = 28\nvalue = [28, 0]", fillcolor="#e58139"] ;
19 -> 23 ;
24 [label="gini = 0.0\nsamples = 249\nvalue = [249, 0]", fillcolor="#e58139"] ;
18 -> 24 ;
25 [label="X[6] <= 0.283\ngini = 0.036\nsamples = 326\nvalue = [320, 6]", fillcolor="#e5833d"] ;
17 -> 25 ;
26 [label="X[1] <= 0.561\ngini = 0.5\nsamples = 2\nvalue = [1, 1]", fillcolor="#ffffff"] ;
25 -> 26 ;
27 [label="gini = 0.0\nsamples = 1\nvalue = [0, 1]", fillcolor="#399de5"] ;
26 -> 27 ;
28 [label="gini = 0.0\nsamples = 1\nvalue = [1, 0]", fillcolor="#e58139"] ;
26 -> 28 ;
29 [label="X[6] <= 0.312\ngini = 0.03\nsamples = 324\nvalue = [319, 5]", fillcolor="#e5833c"] ;
25 -> 29 ;
30 [label="X[6] <= 0.311\ngini = 0.098\nsamples = 58\nvalue = [55, 3]", fillcolor="#e68844"] ;
29 -> 30 ;
31 [label="X[10] <= 0.5\ngini = 0.07\nsamples = 55\nvalue = [53, 2]", fillcolor="#e68640"] ;
30 -> 31 ;
32 [label="X[5] <= 0.111\ngini = 0.038\nsamples = 51\nvalue = [50, 1]", fillcolor="#e6843d"] ;
31 -> 32 ;
33 [label="X[5] <= 0.101\ngini = 0.153\nsamples = 12\nvalue = [11, 1]", fillcolor="#e78c4b"] ;
32 -> 33 ;
34 [label="gini = 0.0\nsamples = 11\nvalue = [11, 0]", fillcolor="#e58139"] ;
33 -> 34 ;
35 [label="gini = 0.0\nsamples = 1\nvalue = [0, 1]", fillcolor="#399de5"] ;
33 -> 35 ;
36 [label="gini = 0.0\nsamples = 39\nvalue = [39, 0]", fillcolor="#e58139"] ;
32 -> 36 ;
37 [label="X[6] <= 0.286\ngini = 0.375\nsamples = 4\nvalue = [3, 1]", fillcolor="#eeab7b"] ;
31 -> 37 ;
38 [label="gini = 0.0\nsamples = 1\nvalue = [0, 1]", fillcolor="#399de5"] ;
37 -> 38 ;
39 [label="gini = 0.0\nsamples = 3\nvalue = [3, 0]", fillcolor="#e58139"] ;
37 -> 39 ;
40 [label="X[1] <= 0.591\ngini = 0.444\nsamples = 3\nvalue = [2, 1]", fillcolor="#f2c09c"] ;
30 -> 40 ;
41 [label="gini = 0.0\nsamples = 2\nvalue = [2, 0]", fillcolor="#e58139"] ;
40 -> 41 ;
42 [label="gini = 0.0\nsamples = 1\nvalue = [0, 1]", fillcolor="#399de5"] ;
40 -> 42 ;
43 [label="X[5] <= 0.402\ngini = 0.015\nsamples = 266\nvalue = [264, 2]", fillcolor="#e5823b"] ;
29 -> 43 ;
44 [label="gini = 0.0\nsamples = 217\nvalue = [217, 0]", fillcolor="#e58139"] ;
43 -> 44 ;
45 [label="X[5] <= 0.414\ngini = 0.078\nsamples = 49\nvalue = [47, 2]", fillcolor="#e68641"] ;
43 -> 45 ;
46 [label="gini = 0.0\nsamples = 1\nvalue = [0, 1]", fillcolor="#399de5"] ;
45 -> 46 ;
47 [label="X[1] <= 0.591\ngini = 0.041\nsamples = 48\nvalue = [47, 1]", fillcolor="#e6843d"] ;
45 -> 47 ;
48 [label="gini = 0.0\nsamples = 36\nvalue = [36, 0]", fillcolor="#e58139"] ;
47 -> 48 ;
49 [label="X[6] <= 0.371\ngini = 0.153\nsamples = 12\nvalue = [11, 1]", fillcolor="#e78c4b"] ;
47 -> 49 ;
50 [label="X[6] <= 0.352\ngini = 0.444\nsamples = 3\nvalue = [2, 1]", fillcolor="#f2c09c"] ;
49 -> 50 ;
51 [label="gini = 0.0\nsamples = 2\nvalue = [2, 0]", fillcolor="#e58139"] ;
50 -> 51 ;
52 [label="gini = 0.0\nsamples = 1\nvalue = [0, 1]", fillcolor="#399de5"] ;
50 -> 52 ;
53 [label="gini = 0.0\nsamples = 9\nvalue = [9, 0]", fillcolor="#e58139"] ;
49 -> 53 ;
54 [label="X[1] <= 0.469\ngini = 0.072\nsamples = 134\nvalue = [129, 5]", fillcolor="#e68641"] ;
10 -> 54 ;
55 [label="X[10] <= 0.5\ngini = 0.32\nsamples = 10\nvalue = [8, 2]", fillcolor="#eca06a"] ;
54 -> 55 ;
56 [label="X[5] <= 0.219\ngini = 0.198\nsamples = 9\nvalue = [8, 1]", fillcolor="#e89152"] ;
55 -> 56 ;
57 [label="X[5] <= 0.214\ngini = 0.375\nsamples = 4\nvalue = [3, 1]", fillcolor="#eeab7b"] ;
56 -> 57 ;
58 [label="gini = 0.0\nsamples = 3\nvalue = [3, 0]", fillcolor="#e58139"] ;
57 -> 58 ;
59 [label="gini = 0.0\nsamples = 1\nvalue = [0, 1]", fillcolor="#399de5"] ;
57 -> 59 ;
60 [label="gini = 0.0\nsamples = 5\nvalue = [5, 0]", fillcolor="#e58139"] ;
56 -> 60 ;
61 [label="gini = 0.0\nsamples = 1\nvalue = [0, 1]", fillcolor="#399de5"] ;
55 -> 61 ;
62 [label="X[2] <= 0.5\ngini = 0.047\nsamples = 124\nvalue = [121, 3]", fillcolor="#e6843e"] ;
54 -> 62 ;
63 [label="X[6] <= 0.45\ngini = 0.034\nsamples = 114\nvalue = [112, 2]", fillcolor="#e5833d"] ;
62 -> 63 ;
64 [label="X[5] <= 0.176\ngini = 0.019\nsamples = 102\nvalue = [101, 1]", fillcolor="#e5823b"] ;
63 -> 64 ;
65 [label="gini = 0.0\nsamples = 62\nvalue = [62, 0]", fillcolor="#e58139"] ;
64 -> 65 ;
66 [label="X[5] <= 0.181\ngini = 0.049\nsamples = 40\nvalue = [39, 1]", fillcolor="#e6843e"] ;
64 -> 66 ;
67 [label="gini = 0.0\nsamples = 1\nvalue = [0, 1]", fillcolor="#399de5"] ;
66 -> 67 ;
68 [label="gini = 0.0\nsamples = 39\nvalue = [39, 0]", fillcolor="#e58139"] ;
66 -> 68 ;
69 [label="X[6] <= 0.456\ngini = 0.153\nsamples = 12\nvalue = [11, 1]", fillcolor="#e78c4b"] ;
63 -> 69 ;
70 [label="gini = 0.0\nsamples = 1\nvalue = [0, 1]", fillcolor="#399de5"] ;
69 -> 70 ;
71 [label="gini = 0.0\nsamples = 11\nvalue = [11, 0]", fillcolor="#e58139"] ;
69 -> 71 ;
72 [label="X[5] <= 0.086\ngini = 0.18\nsamples = 10\nvalue = [9, 1]", fillcolor="#e88f4f"] ;
62 -> 72 ;
73 [label="X[6] <= 0.244\ngini = 0.5\nsamples = 2\nvalue = [1, 1]", fillcolor="#ffffff"] ;
72 -> 73 ;
74 [label="gini = 0.0\nsamples = 1\nvalue = [1, 0]", fillcolor="#e58139"] ;
73 -> 74 ;
75 [label="gini = 0.0\nsamples = 1\nvalue = [0, 1]", fillcolor="#399de5"] ;
73 -> 75 ;
76 [label="gini = 0.0\nsamples = 8\nvalue = [8, 0]", fillcolor="#e58139"] ;
72 -> 76 ;
77 [label="X[3] <= 0.5\ngini = 0.112\nsamples = 1028\nvalue = [967, 61]", fillcolor="#e78945"] ;
1 -> 77 ;
78 [label="X[6] <= 0.25\ngini = 0.097\nsamples = 954\nvalue = [905, 49]", fillcolor="#e68844"] ;
77 -> 78 ;
79 [label="X[1] <= 0.799\ngini = 0.047\nsamples = 249\nvalue = [243, 6]", fillcolor="#e6843e"] ;
78 -> 79 ;
80 [label="X[5] <= 0.191\ngini = 0.035\nsamples = 227\nvalue = [223, 4]", fillcolor="#e5833d"] ;
79 -> 80 ;
81 [label="gini = 0.0\nsamples = 127\nvalue = [127, 0]", fillcolor="#e58139"] ;
80 -> 81 ;
82 [label="X[5] <= 0.192\ngini = 0.077\nsamples = 100\nvalue = [96, 4]", fillcolor="#e68641"] ;
80 -> 82 ;
83 [label="gini = 0.0\nsamples = 1\nvalue = [0, 1]", fillcolor="#399de5"] ;
82 -> 83 ;
84 [label="X[5] <= 0.195\ngini = 0.059\nsamples = 99\nvalue = [96, 3]", fillcolor="#e6853f"] ;
82 -> 84 ;
85 [label="X[6] <= 0.227\ngini = 0.32\nsamples = 5\nvalue = [4, 1]", fillcolor="#eca06a"] ;
84 -> 85 ;
86 [label="gini = 0.0\nsamples = 4\nvalue = [4, 0]", fillcolor="#e58139"] ;
85 -> 86 ;
87 [label="gini = 0.0\nsamples = 1\nvalue = [0, 1]", fillcolor="#399de5"] ;
85 -> 87 ;
88 [label="X[1] <= 0.713\ngini = 0.042\nsamples = 94\nvalue = [92, 2]", fillcolor="#e6843d"] ;
84 -> 88 ;
89 [label="gini = 0.0\nsamples = 56\nvalue = [56, 0]", fillcolor="#e58139"] ;
88 -> 89 ;
90 [label="X[6] <= 0.203\ngini = 0.1\nsamples = 38\nvalue = [36, 2]", fillcolor="#e68844"] ;
88 -> 90 ;
91 [label="X[6] <= 0.199\ngini = 0.208\nsamples = 17\nvalue = [15, 2]", fillcolor="#e89253"] ;
90 -> 91 ;
92 [label="gini = 0.0\nsamples = 15\nvalue = [15, 0]", fillcolor="#e58139"] ;
91 -> 92 ;
93 [label="gini = 0.0\nsamples = 2\nvalue = [0, 2]", fillcolor="#399de5"] ;
91 -> 93 ;
94 [label="gini = 0.0\nsamples = 21\nvalue = [21, 0]", fillcolor="#e58139"] ;
90 -> 94 ;
95 [label="X[5] <= 0.099\ngini = 0.165\nsamples = 22\nvalue = [20, 2]", fillcolor="#e88e4d"] ;
79 -> 95 ;
96 [label="X[7] <= 0.5\ngini = 0.5\nsamples = 4\nvalue = [2, 2]", fillcolor="#ffffff"] ;
95 -> 96 ;
97 [label="X[5] <= 0.025\ngini = 0.444\nsamples = 3\nvalue = [1, 2]", fillcolor="#9ccef2"] ;
96 -> 97 ;
98 [label="gini = 0.0\nsamples = 1\nvalue = [1, 0]", fillcolor="#e58139"] ;
97 -> 98 ;
99 [label="gini = 0.0\nsamples = 2\nvalue = [0, 2]", fillcolor="#399de5"] ;
97 -> 99 ;
100 [label="gini = 0.0\nsamples = 1\nvalue = [1, 0]", fillcolor="#e58139"] ;
96 -> 100 ;
101 [label="gini = 0.0\nsamples = 18\nvalue = [18, 0]", fillcolor="#e58139"] ;
95 -> 101 ;
102 [label="X[6] <= 0.252\ngini = 0.115\nsamples = 705\nvalue = [662, 43]", fillcolor="#e78946"] ;
78 -> 102 ;
103 [label="X[0] <= 0.5\ngini = 0.49\nsamples = 7\nvalue = [4, 3]", fillcolor="#f8e0ce"] ;
102 -> 103 ;
104 [label="gini = 0.0\nsamples = 2\nvalue = [0, 2]", fillcolor="#399de5"] ;
103 -> 104 ;
105 [label="X[1] <= 0.731\ngini = 0.32\nsamples = 5\nvalue = [4, 1]", fillcolor="#eca06a"] ;
103 -> 105 ;
106 [label="gini = 0.0\nsamples = 4\nvalue = [4, 0]", fillcolor="#e58139"] ;
105 -> 106 ;
107 [label="gini = 0.0\nsamples = 1\nvalue = [0, 1]", fillcolor="#399de5"] ;
105 -> 107 ;
108 [label="X[6] <= 0.324\ngini = 0.108\nsamples = 698\nvalue = [658, 40]", fillcolor="#e78945"] ;
102 -> 108 ;
109 [label="X[6] <= 0.324\ngini = 0.142\nsamples = 351\nvalue = [324, 27]", fillcolor="#e78c49"] ;
108 -> 109 ;
110 [label="X[6] <= 0.306\ngini = 0.129\nsamples = 346\nvalue = [322, 24]", fillcolor="#e78a48"] ;
109 -> 110 ;
111 [label="X[5] <= 0.431\ngini = 0.096\nsamples = 256\nvalue = [243, 13]", fillcolor="#e68844"] ;
110 -> 111 ;
112 [label="X[9] <= 0.5\ngini = 0.064\nsamples = 210\nvalue = [203, 7]", fillcolor="#e68540"] ;
111 -> 112 ;
113 [label="gini = 0.0\nsamples = 71\nvalue = [71, 0]", fillcolor="#e58139"] ;
112 -> 113 ;
114 [label="X[6] <= 0.27\ngini = 0.096\nsamples = 139\nvalue = [132, 7]", fillcolor="#e68844"] ;
112 -> 114 ;
115 [label="X[6] <= 0.261\ngini = 0.18\nsamples = 40\nvalue = [36, 4]", fillcolor="#e88f4f"] ;
114 -> 115 ;
116 [label="gini = 0.0\nsamples = 17\nvalue = [17, 0]", fillcolor="#e58139"] ;
115 -> 116 ;
117 [label="X[5] <= 0.022\ngini = 0.287\nsamples = 23\nvalue = [19, 4]", fillcolor="#ea9c63"] ;
115 -> 117 ;
118 [label="gini = 0.0\nsamples = 1\nvalue = [0, 1]", fillcolor="#399de5"] ;
117 -> 118 ;
119 [label="X[1] <= 0.628\ngini = 0.236\nsamples = 22\nvalue = [19, 3]", fillcolor="#e99558"] ;
117 -> 119 ;
120 [label="X[6] <= 0.264\ngini = 0.5\nsamples = 2\nvalue = [1, 1]", fillcolor="#ffffff"] ;
119 -> 120 ;
121 [label="gini = 0.0\nsamples = 1\nvalue = [1, 0]", fillcolor="#e58139"] ;
120 -> 121 ;
122 [label="gini = 0.0\nsamples = 1\nvalue = [0, 1]", fillcolor="#399de5"] ;
120 -> 122 ;
123 [label="X[12] <= 0.5\ngini = 0.18\nsamples = 20\nvalue = [18, 2]", fillcolor="#e88f4f"] ;
119 -> 123 ;
124 [label="X[5] <= 0.248\ngini = 0.26\nsamples = 13\nvalue = [11, 2]", fillcolor="#ea985d"] ;
123 -> 124 ;
125 [label="X[5] <= 0.203\ngini = 0.346\nsamples = 9\nvalue = [7, 2]", fillcolor="#eca572"] ;
124 -> 125 ;
126 [label="X[1] <= 0.664\ngini = 0.219\nsamples = 8\nvalue = [7, 1]", fillcolor="#e99355"] ;
125 -> 126 ;
127 [label="X[4] <= 0.5\ngini = 0.5\nsamples = 2\nvalue = [1, 1]", fillcolor="#ffffff"] ;
126 -> 127 ;
128 [label="gini = 0.0\nsamples = 1\nvalue = [1, 0]", fillcolor="#e58139"] ;
127 -> 128 ;
129 [label="gini = 0.0\nsamples = 1\nvalue = [0, 1]", fillcolor="#399de5"] ;
127 -> 129 ;
130 [label="gini = 0.0\nsamples = 6\nvalue = [6, 0]", fillcolor="#e58139"] ;
126 -> 130 ;
131 [label="gini = 0.0\nsamples = 1\nvalue = [0, 1]", fillcolor="#399de5"] ;
125 -> 131 ;
132 [label="gini = 0.0\nsamples = 4\nvalue = [4, 0]", fillcolor="#e58139"] ;
124 -> 132 ;
133 [label="gini = 0.0\nsamples = 7\nvalue = [7, 0]", fillcolor="#e58139"] ;
123 -> 133 ;
134 [label="X[5] <= 0.034\ngini = 0.059\nsamples = 99\nvalue = [96, 3]", fillcolor="#e6853f"] ;
114 -> 134 ;
135 [label="X[5] <= 0.031\ngini = 0.219\nsamples = 8\nvalue = [7, 1]", fillcolor="#e99355"] ;
134 -> 135 ;
136 [label="gini = 0.0\nsamples = 7\nvalue = [7, 0]", fillcolor="#e58139"] ;
135 -> 136 ;
137 [label="gini = 0.0\nsamples = 1\nvalue = [0, 1]", fillcolor="#399de5"] ;
135 -> 137 ;
138 [label="X[0] <= 0.5\ngini = 0.043\nsamples = 91\nvalue = [89, 2]", fillcolor="#e6843d"] ;
134 -> 138 ;
139 [label="gini = 0.0\nsamples = 40\nvalue = [40, 0]", fillcolor="#e58139"] ;
138 -> 139 ;
140 [label="X[5] <= 0.136\ngini = 0.075\nsamples = 51\nvalue = [49, 2]", fillcolor="#e68641"] ;
138 -> 140 ;
141 [label="gini = 0.0\nsamples = 20\nvalue = [20, 0]", fillcolor="#e58139"] ;
140 -> 141 ;
142 [label="X[5] <= 0.144\ngini = 0.121\nsamples = 31\nvalue = [29, 2]", fillcolor="#e78a47"] ;
140 -> 142 ;
143 [label="gini = 0.0\nsamples = 1\nvalue = [0, 1]", fillcolor="#399de5"] ;
142 -> 143 ;
144 [label="X[15] <= 0.5\ngini = 0.064\nsamples = 30\nvalue = [29, 1]", fillcolor="#e68540"] ;
142 -> 144 ;
145 [label="gini = 0.0\nsamples = 25\nvalue = [25, 0]", fillcolor="#e58139"] ;
144 -> 145 ;
146 [label="X[6] <= 0.28\ngini = 0.32\nsamples = 5\nvalue = [4, 1]", fillcolor="#eca06a"] ;
144 -> 146 ;
147 [label="gini = 0.0\nsamples = 1\nvalue = [0, 1]", fillcolor="#399de5"] ;
146 -> 147 ;
148 [label="gini = 0.0\nsamples = 4\nvalue = [4, 0]", fillcolor="#e58139"] ;
146 -> 148 ;
149 [label="X[5] <= 0.444\ngini = 0.227\nsamples = 46\nvalue = [40, 6]", fillcolor="#e99457"] ;
111 -> 149 ;
150 [label="gini = 0.0\nsamples = 1\nvalue = [0, 1]", fillcolor="#399de5"] ;
149 -> 150 ;
151 [label="X[6] <= 0.264\ngini = 0.198\nsamples = 45\nvalue = [40, 5]", fillcolor="#e89152"] ;
149 -> 151 ;
152 [label="X[1] <= 0.799\ngini = 0.397\nsamples = 11\nvalue = [8, 3]", fillcolor="#efb083"] ;
151 -> 152 ;
153 [label="X[14] <= 0.5\ngini = 0.32\nsamples = 10\nvalue = [8, 2]", fillcolor="#eca06a"] ;
152 -> 153 ;
154 [label="gini = 0.0\nsamples = 4\nvalue = [4, 0]", fillcolor="#e58139"] ;
153 -> 154 ;
155 [label="X[1] <= 0.664\ngini = 0.444\nsamples = 6\nvalue = [4, 2]", fillcolor="#f2c09c"] ;
153 -> 155 ;
156 [label="gini = 0.0\nsamples = 1\nvalue = [0, 1]", fillcolor="#399de5"] ;
155 -> 156 ;
157 [label="X[1] <= 0.744\ngini = 0.32\nsamples = 5\nvalue = [4, 1]", fillcolor="#eca06a"] ;
155 -> 157 ;
158 [label="gini = 0.0\nsamples = 4\nvalue = [4, 0]", fillcolor="#e58139"] ;
157 -> 158 ;
159 [label="gini = 0.0\nsamples = 1\nvalue = [0, 1]", fillcolor="#399de5"] ;
157 -> 159 ;
160 [label="gini = 0.0\nsamples = 1\nvalue = [0, 1]", fillcolor="#399de5"] ;
152 -> 160 ;
161 [label="X[6] <= 0.293\ngini = 0.111\nsamples = 34\nvalue = [32, 2]", fillcolor="#e78945"] ;
151 -> 161 ;
162 [label="gini = 0.0\nsamples = 23\nvalue = [23, 0]", fillcolor="#e58139"] ;
161 -> 162 ;
163 [label="X[14] <= 0.5\ngini = 0.298\nsamples = 11\nvalue = [9, 2]", fillcolor="#eb9d65"] ;
161 -> 163 ;
164 [label="gini = 0.0\nsamples = 6\nvalue = [6, 0]", fillcolor="#e58139"] ;
163 -> 164 ;
165 [label="X[5] <= 0.657\ngini = 0.48\nsamples = 5\nvalue = [3, 2]", fillcolor="#f6d5bd"] ;
163 -> 165 ;
166 [label="gini = 0.0\nsamples = 2\nvalue = [2, 0]", fillcolor="#e58139"] ;
165 -> 166 ;
167 [label="X[5] <= 0.734\ngini = 0.444\nsamples = 3\nvalue = [1, 2]", fillcolor="#9ccef2"] ;
165 -> 167 ;
168 [label="gini = 0.0\nsamples = 2\nvalue = [0, 2]", fillcolor="#399de5"] ;
167 -> 168 ;
169 [label="gini = 0.0\nsamples = 1\nvalue = [1, 0]", fillcolor="#e58139"] ;
167 -> 169 ;
170 [label="X[6] <= 0.309\ngini = 0.215\nsamples = 90\nvalue = [79, 11]", fillcolor="#e99355"] ;
110 -> 170 ;
171 [label="X[6] <= 0.307\ngini = 0.391\nsamples = 15\nvalue = [11, 4]", fillcolor="#eeaf81"] ;
170 -> 171 ;
172 [label="X[15] <= 0.5\ngini = 0.198\nsamples = 9\nvalue = [8, 1]", fillcolor="#e89152"] ;
171 -> 172 ;
173 [label="gini = 0.0\nsamples = 8\nvalue = [8, 0]", fillcolor="#e58139"] ;
172 -> 173 ;
174 [label="gini = 0.0\nsamples = 1\nvalue = [0, 1]", fillcolor="#399de5"] ;
172 -> 174 ;
175 [label="X[5] <= 0.717\ngini = 0.5\nsamples = 6\nvalue = [3, 3]", fillcolor="#ffffff"] ;
171 -> 175 ;
176 [label="X[15] <= 0.5\ngini = 0.375\nsamples = 4\nvalue = [1, 3]", fillcolor="#7bbeee"] ;
175 -> 176 ;
177 [label="gini = 0.0\nsamples = 3\nvalue = [0, 3]", fillcolor="#399de5"] ;
176 -> 177 ;
178 [label="gini = 0.0\nsamples = 1\nvalue = [1, 0]", fillcolor="#e58139"] ;
176 -> 178 ;
179 [label="gini = 0.0\nsamples = 2\nvalue = [2, 0]", fillcolor="#e58139"] ;
175 -> 179 ;
180 [label="X[5] <= 0.529\ngini = 0.169\nsamples = 75\nvalue = [68, 7]", fillcolor="#e88e4d"] ;
170 -> 180 ;
181 [label="X[5] <= 0.505\ngini = 0.219\nsamples = 56\nvalue = [49, 7]", fillcolor="#e99355"] ;
180 -> 181 ;
182 [label="X[14] <= 0.5\ngini = 0.194\nsamples = 55\nvalue = [49, 6]", fillcolor="#e89051"] ;
181 -> 182 ;
183 [label="X[4] <= 0.5\ngini = 0.291\nsamples = 34\nvalue = [28, 6]", fillcolor="#eb9c63"] ;
182 -> 183 ;
184 [label="gini = 0.0\nsamples = 1\nvalue = [0, 1]", fillcolor="#399de5"] ;
183 -> 184 ;
185 [label="X[6] <= 0.315\ngini = 0.257\nsamples = 33\nvalue = [28, 5]", fillcolor="#ea985c"] ;
183 -> 185 ;
186 [label="X[10] <= 0.5\ngini = 0.111\nsamples = 17\nvalue = [16, 1]", fillcolor="#e78945"] ;
185 -> 186 ;
187 [label="gini = 0.0\nsamples = 12\nvalue = [12, 0]", fillcolor="#e58139"] ;
186 -> 187 ;
188 [label="X[12] <= 0.5\ngini = 0.32\nsamples = 5\nvalue = [4, 1]", fillcolor="#eca06a"] ;
186 -> 188 ;
189 [label="gini = 0.0\nsamples = 4\nvalue = [4, 0]", fillcolor="#e58139"] ;
188 -> 189 ;
190 [label="gini = 0.0\nsamples = 1\nvalue = [0, 1]", fillcolor="#399de5"] ;
188 -> 190 ;
191 [label="X[6] <= 0.321\ngini = 0.375\nsamples = 16\nvalue = [12, 4]", fillcolor="#eeab7b"] ;
185 -> 191 ;
192 [label="X[2] <= 0.5\ngini = 0.5\nsamples = 8\nvalue = [4, 4]", fillcolor="#ffffff"] ;
191 -> 192 ;
193 [label="X[12] <= 0.5\ngini = 0.32\nsamples = 5\nvalue = [1, 4]", fillcolor="#6ab6ec"] ;
192 -> 193 ;
194 [label="gini = 0.0\nsamples = 3\nvalue = [0, 3]", fillcolor="#399de5"] ;
193 -> 194 ;
195 [label="X[5] <= 0.169\ngini = 0.5\nsamples = 2\nvalue = [1, 1]", fillcolor="#ffffff"] ;
193 -> 195 ;
196 [label="gini = 0.0\nsamples = 1\nvalue = [0, 1]", fillcolor="#399de5"] ;
195 -> 196 ;
197 [label="gini = 0.0\nsamples = 1\nvalue = [1, 0]", fillcolor="#e58139"] ;
195 -> 197 ;
198 [label="gini = 0.0\nsamples = 3\nvalue = [3, 0]", fillcolor="#e58139"] ;
192 -> 198 ;
199 [label="gini = 0.0\nsamples = 8\nvalue = [8, 0]", fillcolor="#e58139"] ;
191 -> 199 ;
200 [label="gini = 0.0\nsamples = 21\nvalue = [21, 0]", fillcolor="#e58139"] ;
182 -> 200 ;
201 [label="gini = 0.0\nsamples = 1\nvalue = [0, 1]", fillcolor="#399de5"] ;
181 -> 201 ;
202 [label="gini = 0.0\nsamples = 19\nvalue = [19, 0]", fillcolor="#e58139"] ;
180 -> 202 ;
203 [label="X[9] <= 0.5\ngini = 0.48\nsamples = 5\nvalue = [2, 3]", fillcolor="#bddef6"] ;
109 -> 203 ;
204 [label="gini = 0.0\nsamples = 2\nvalue = [2, 0]", fillcolor="#e58139"] ;
203 -> 204 ;
205 [label="gini = 0.0\nsamples = 3\nvalue = [0, 3]", fillcolor="#399de5"] ;
203 -> 205 ;
206 [label="X[6] <= 0.398\ngini = 0.072\nsamples = 347\nvalue = [334, 13]", fillcolor="#e68641"] ;
108 -> 206 ;
207 [label="X[5] <= 0.892\ngini = 0.011\nsamples = 186\nvalue = [185, 1]", fillcolor="#e5823a"] ;
206 -> 207 ;
208 [label="gini = 0.0\nsamples = 184\nvalue = [184, 0]", fillcolor="#e58139"] ;
207 -> 208 ;
209 [label="X[6] <= 0.372\ngini = 0.5\nsamples = 2\nvalue = [1, 1]", fillcolor="#ffffff"] ;
207 -> 209 ;
210 [label="gini = 0.0\nsamples = 1\nvalue = [1, 0]", fillcolor="#e58139"] ;
209 -> 210 ;
211 [label="gini = 0.0\nsamples = 1\nvalue = [0, 1]", fillcolor="#399de5"] ;
209 -> 211 ;
212 [label="X[6] <= 0.403\ngini = 0.138\nsamples = 161\nvalue = [149, 12]", fillcolor="#e78b49"] ;
206 -> 212 ;
213 [label="X[4] <= 0.5\ngini = 0.444\nsamples = 6\nvalue = [4, 2]", fillcolor="#f2c09c"] ;
212 -> 213 ;
214 [label="gini = 0.0\nsamples = 1\nvalue = [0, 1]", fillcolor="#399de5"] ;
213 -> 214 ;
215 [label="X[15] <= 0.5\ngini = 0.32\nsamples = 5\nvalue = [4, 1]", fillcolor="#eca06a"] ;
213 -> 215 ;
216 [label="gini = 0.0\nsamples = 4\nvalue = [4, 0]", fillcolor="#e58139"] ;
215 -> 216 ;
217 [label="gini = 0.0\nsamples = 1\nvalue = [0, 1]", fillcolor="#399de5"] ;
215 -> 217 ;
218 [label="X[5] <= 0.155\ngini = 0.121\nsamples = 155\nvalue = [145, 10]", fillcolor="#e78a47"] ;
212 -> 218 ;
219 [label="X[7] <= 0.5\ngini = 0.038\nsamples = 51\nvalue = [50, 1]", fillcolor="#e6843d"] ;
218 -> 219 ;
220 [label="gini = 0.0\nsamples = 42\nvalue = [42, 0]", fillcolor="#e58139"] ;
219 -> 220 ;
221 [label="X[14] <= 0.5\ngini = 0.198\nsamples = 9\nvalue = [8, 1]", fillcolor="#e89152"] ;
219 -> 221 ;
222 [label="gini = 0.0\nsamples = 7\nvalue = [7, 0]", fillcolor="#e58139"] ;
221 -> 222 ;
223 [label="X[6] <= 0.496\ngini = 0.5\nsamples = 2\nvalue = [1, 1]", fillcolor="#ffffff"] ;
221 -> 223 ;
224 [label="gini = 0.0\nsamples = 1\nvalue = [0, 1]", fillcolor="#399de5"] ;
223 -> 224 ;
225 [label="gini = 0.0\nsamples = 1\nvalue = [1, 0]", fillcolor="#e58139"] ;
223 -> 225 ;
226 [label="X[5] <= 0.158\ngini = 0.158\nsamples = 104\nvalue = [95, 9]", fillcolor="#e78d4c"] ;
218 -> 226 ;
227 [label="gini = 0.0\nsamples = 1\nvalue = [0, 1]", fillcolor="#399de5"] ;
226 -> 227 ;
228 [label="X[13] <= 0.5\ngini = 0.143\nsamples = 103\nvalue = [95, 8]", fillcolor="#e78c4a"] ;
226 -> 228 ;
229 [label="X[10] <= 0.5\ngini = 0.086\nsamples = 67\nvalue = [64, 3]", fillcolor="#e68742"] ;
228 -> 229 ;
230 [label="X[5] <= 0.191\ngini = 0.036\nsamples = 55\nvalue = [54, 1]", fillcolor="#e5833d"] ;
229 -> 230 ;
231 [label="X[6] <= 0.487\ngini = 0.198\nsamples = 9\nvalue = [8, 1]", fillcolor="#e89152"] ;
230 -> 231 ;
232 [label="gini = 0.0\nsamples = 8\nvalue = [8, 0]", fillcolor="#e58139"] ;
231 -> 232 ;
233 [label="gini = 0.0\nsamples = 1\nvalue = [0, 1]", fillcolor="#399de5"] ;
231 -> 233 ;
234 [label="gini = 0.0\nsamples = 46\nvalue = [46, 0]", fillcolor="#e58139"] ;
230 -> 234 ;
235 [label="X[5] <= 0.811\ngini = 0.278\nsamples = 12\nvalue = [10, 2]", fillcolor="#ea9a61"] ;
229 -> 235 ;
236 [label="X[14] <= 0.5\ngini = 0.18\nsamples = 10\nvalue = [9, 1]", fillcolor="#e88f4f"] ;
235 -> 236 ;
237 [label="X[5] <= 0.429\ngini = 0.444\nsamples = 3\nvalue = [2, 1]", fillcolor="#f2c09c"] ;
236 -> 237 ;
238 [label="gini = 0.0\nsamples = 2\nvalue = [2, 0]", fillcolor="#e58139"] ;
237 -> 238 ;
239 [label="gini = 0.0\nsamples = 1\nvalue = [0, 1]", fillcolor="#399de5"] ;
237 -> 239 ;
240 [label="gini = 0.0\nsamples = 7\nvalue = [7, 0]", fillcolor="#e58139"] ;
236 -> 240 ;
241 [label="X[6] <= 0.513\ngini = 0.5\nsamples = 2\nvalue = [1, 1]", fillcolor="#ffffff"] ;
235 -> 241 ;
242 [label="gini = 0.0\nsamples = 1\nvalue = [1, 0]", fillcolor="#e58139"] ;
241 -> 242 ;
243 [label="gini = 0.0\nsamples = 1\nvalue = [0, 1]", fillcolor="#399de5"] ;
241 -> 243 ;
244 [label="X[5] <= 0.703\ngini = 0.239\nsamples = 36\nvalue = [31, 5]", fillcolor="#e99559"] ;
228 -> 244 ;
245 [label="X[5] <= 0.693\ngini = 0.311\nsamples = 26\nvalue = [21, 5]", fillcolor="#eb9f68"] ;
244 -> 245 ;
246 [label="X[6] <= 0.477\ngini = 0.219\nsamples = 24\nvalue = [21, 3]", fillcolor="#e99355"] ;
245 -> 246 ;
247 [label="X[6] <= 0.473\ngini = 0.337\nsamples = 14\nvalue = [11, 3]", fillcolor="#eca36f"] ;
246 -> 247 ;
248 [label="X[1] <= 0.677\ngini = 0.26\nsamples = 13\nvalue = [11, 2]", fillcolor="#ea985d"] ;
247 -> 248 ;
249 [label="gini = 0.0\nsamples = 7\nvalue = [7, 0]", fillcolor="#e58139"] ;
248 -> 249 ;
250 [label="X[1] <= 0.725\ngini = 0.444\nsamples = 6\nvalue = [4, 2]", fillcolor="#f2c09c"] ;
248 -> 250 ;
251 [label="gini = 0.0\nsamples = 2\nvalue = [0, 2]", fillcolor="#399de5"] ;
250 -> 251 ;
252 [label="gini = 0.0\nsamples = 4\nvalue = [4, 0]", fillcolor="#e58139"] ;
250 -> 252 ;
253 [label="gini = 0.0\nsamples = 1\nvalue = [0, 1]", fillcolor="#399de5"] ;
247 -> 253 ;
254 [label="gini = 0.0\nsamples = 10\nvalue = [10, 0]", fillcolor="#e58139"] ;
246 -> 254 ;
255 [label="gini = 0.0\nsamples = 2\nvalue = [0, 2]", fillcolor="#399de5"] ;
245 -> 255 ;
256 [label="gini = 0.0\nsamples = 10\nvalue = [10, 0]", fillcolor="#e58139"] ;
244 -> 256 ;
257 [label="X[15] <= 0.5\ngini = 0.272\nsamples = 74\nvalue = [62, 12]", fillcolor="#ea995f"] ;
77 -> 257 ;
258 [label="X[5] <= 0.653\ngini = 0.183\nsamples = 59\nvalue = [53, 6]", fillcolor="#e88f4f"] ;
257 -> 258 ;
259 [label="X[1] <= 0.762\ngini = 0.085\nsamples = 45\nvalue = [43, 2]", fillcolor="#e68742"] ;
258 -> 259 ;
260 [label="gini = 0.0\nsamples = 28\nvalue = [28, 0]", fillcolor="#e58139"] ;
259 -> 260 ;
261 [label="X[9] <= 0.5\ngini = 0.208\nsamples = 17\nvalue = [15, 2]", fillcolor="#e89253"] ;
259 -> 261 ;
262 [label="X[6] <= 0.376\ngini = 0.408\nsamples = 7\nvalue = [5, 2]", fillcolor="#efb388"] ;
261 -> 262 ;
263 [label="X[14] <= 0.5\ngini = 0.48\nsamples = 5\nvalue = [3, 2]", fillcolor="#f6d5bd"] ;
262 -> 263 ;
264 [label="X[1] <= 0.799\ngini = 0.444\nsamples = 3\nvalue = [1, 2]", fillcolor="#9ccef2"] ;
263 -> 264 ;
265 [label="gini = 0.0\nsamples = 2\nvalue = [0, 2]", fillcolor="#399de5"] ;
264 -> 265 ;
266 [label="gini = 0.0\nsamples = 1\nvalue = [1, 0]", fillcolor="#e58139"] ;
264 -> 266 ;
267 [label="gini = 0.0\nsamples = 2\nvalue = [2, 0]", fillcolor="#e58139"] ;
263 -> 267 ;
268 [label="gini = 0.0\nsamples = 2\nvalue = [2, 0]", fillcolor="#e58139"] ;
262 -> 268 ;
269 [label="gini = 0.0\nsamples = 10\nvalue = [10, 0]", fillcolor="#e58139"] ;
261 -> 269 ;
270 [label="X[2] <= 0.5\ngini = 0.408\nsamples = 14\nvalue = [10, 4]", fillcolor="#efb388"] ;
258 -> 270 ;
271 [label="X[1] <= 0.683\ngini = 0.5\nsamples = 8\nvalue = [4, 4]", fillcolor="#ffffff"] ;
270 -> 271 ;
272 [label="gini = 0.0\nsamples = 3\nvalue = [3, 0]", fillcolor="#e58139"] ;
271 -> 272 ;
273 [label="X[10] <= 0.5\ngini = 0.32\nsamples = 5\nvalue = [1, 4]", fillcolor="#6ab6ec"] ;
271 -> 273 ;
274 [label="gini = 0.0\nsamples = 4\nvalue = [0, 4]", fillcolor="#399de5"] ;
273 -> 274 ;
275 [label="gini = 0.0\nsamples = 1\nvalue = [1, 0]", fillcolor="#e58139"] ;
273 -> 275 ;
276 [label="gini = 0.0\nsamples = 6\nvalue = [6, 0]", fillcolor="#e58139"] ;
270 -> 276 ;
277 [label="X[6] <= 0.366\ngini = 0.48\nsamples = 15\nvalue = [9, 6]", fillcolor="#f6d5bd"] ;
257 -> 277 ;
278 [label="X[5] <= 0.821\ngini = 0.298\nsamples = 11\nvalue = [9, 2]", fillcolor="#eb9d65"] ;
277 -> 278 ;
279 [label="X[6] <= 0.245\ngini = 0.18\nsamples = 10\nvalue = [9, 1]", fillcolor="#e88f4f"] ;
278 -> 279 ;
280 [label="gini = 0.0\nsamples = 6\nvalue = [6, 0]", fillcolor="#e58139"] ;
279 -> 280 ;
281 [label="X[5] <= 0.242\ngini = 0.375\nsamples = 4\nvalue = [3, 1]", fillcolor="#eeab7b"] ;
279 -> 281 ;
282 [label="gini = 0.0\nsamples = 3\nvalue = [3, 0]", fillcolor="#e58139"] ;
281 -> 282 ;
283 [label="gini = 0.0\nsamples = 1\nvalue = [0, 1]", fillcolor="#399de5"] ;
281 -> 283 ;
284 [label="gini = 0.0\nsamples = 1\nvalue = [0, 1]", fillcolor="#399de5"] ;
278 -> 284 ;
285 [label="gini = 0.0\nsamples = 4\nvalue = [0, 4]", fillcolor="#399de5"] ;
277 -> 285 ;
286 [label="X[1] <= 0.933\ngini = 0.291\nsamples = 678\nvalue = [558, 120]", fillcolor="#eb9c64"] ;
0 -> 286 [labeldistance=2.5, labelangle=-45, headlabel="False"] ;
287 [label="X[4] <= 0.5\ngini = 0.232\nsamples = 343\nvalue = [297, 46]", fillcolor="#e99558"] ;
286 -> 287 ;
288 [label="X[12] <= 0.5\ngini = 0.444\nsamples = 24\nvalue = [16, 8]", fillcolor="#f2c09c"] ;
287 -> 288 ;
289 [label="X[14] <= 0.5\ngini = 0.363\nsamples = 21\nvalue = [16, 5]", fillcolor="#eda877"] ;
288 -> 289 ;
290 [label="gini = 0.0\nsamples = 12\nvalue = [12, 0]", fillcolor="#e58139"] ;
289 -> 290 ;
291 [label="X[1] <= 0.878\ngini = 0.494\nsamples = 9\nvalue = [4, 5]", fillcolor="#d7ebfa"] ;
289 -> 291 ;
292 [label="X[5] <= 0.164\ngini = 0.408\nsamples = 7\nvalue = [2, 5]", fillcolor="#88c4ef"] ;
291 -> 292 ;
293 [label="X[0] <= 0.5\ngini = 0.5\nsamples = 4\nvalue = [2, 2]", fillcolor="#ffffff"] ;
292 -> 293 ;
294 [label="gini = 0.0\nsamples = 2\nvalue = [0, 2]", fillcolor="#399de5"] ;
293 -> 294 ;
295 [label="gini = 0.0\nsamples = 2\nvalue = [2, 0]", fillcolor="#e58139"] ;
293 -> 295 ;
296 [label="gini = 0.0\nsamples = 3\nvalue = [0, 3]", fillcolor="#399de5"] ;
292 -> 296 ;
297 [label="gini = 0.0\nsamples = 2\nvalue = [2, 0]", fillcolor="#e58139"] ;
291 -> 297 ;
298 [label="gini = 0.0\nsamples = 3\nvalue = [0, 3]", fillcolor="#399de5"] ;
288 -> 298 ;
299 [label="X[5] <= 0.99\ngini = 0.21\nsamples = 319\nvalue = [281, 38]", fillcolor="#e99254"] ;
287 -> 299 ;
300 [label="X[5] <= 0.759\ngini = 0.206\nsamples = 318\nvalue = [281, 37]", fillcolor="#e89253"] ;
299 -> 300 ;
301 [label="X[6] <= 0.302\ngini = 0.185\nsamples = 272\nvalue = [244, 28]", fillcolor="#e88f50"] ;
300 -> 301 ;
302 [label="X[6] <= 0.3\ngini = 0.215\nsamples = 188\nvalue = [165, 23]", fillcolor="#e99355"] ;
301 -> 302 ;
303 [label="X[6] <= 0.24\ngini = 0.202\nsamples = 184\nvalue = [163, 21]", fillcolor="#e89153"] ;
302 -> 303 ;
304 [label="X[14] <= 0.5\ngini = 0.12\nsamples = 78\nvalue = [73, 5]", fillcolor="#e78a47"] ;
303 -> 304 ;
305 [label="X[6] <= 0.209\ngini = 0.194\nsamples = 46\nvalue = [41, 5]", fillcolor="#e89051"] ;
304 -> 305 ;
306 [label="X[5] <= 0.11\ngini = 0.287\nsamples = 23\nvalue = [19, 4]", fillcolor="#ea9c63"] ;
305 -> 306 ;
307 [label="X[5] <= 0.088\ngini = 0.5\nsamples = 4\nvalue = [2, 2]", fillcolor="#ffffff"] ;
306 -> 307 ;
308 [label="gini = 0.0\nsamples = 2\nvalue = [2, 0]", fillcolor="#e58139"] ;
307 -> 308 ;
309 [label="gini = 0.0\nsamples = 2\nvalue = [0, 2]", fillcolor="#399de5"] ;
307 -> 309 ;
310 [label="X[1] <= 0.921\ngini = 0.188\nsamples = 19\nvalue = [17, 2]", fillcolor="#e89050"] ;
306 -> 310 ;
311 [label="X[5] <= 0.641\ngini = 0.111\nsamples = 17\nvalue = [16, 1]", fillcolor="#e78945"] ;
310 -> 311 ;
312 [label="gini = 0.0\nsamples = 15\nvalue = [15, 0]", fillcolor="#e58139"] ;
311 -> 312 ;
313 [label="X[13] <= 0.5\ngini = 0.5\nsamples = 2\nvalue = [1, 1]", fillcolor="#ffffff"] ;
311 -> 313 ;
314 [label="gini = 0.0\nsamples = 1\nvalue = [0, 1]", fillcolor="#399de5"] ;
313 -> 314 ;
315 [label="gini = 0.0\nsamples = 1\nvalue = [1, 0]", fillcolor="#e58139"] ;
313 -> 315 ;
316 [label="X[5] <= 0.249\ngini = 0.5\nsamples = 2\nvalue = [1, 1]", fillcolor="#ffffff"] ;
310 -> 316 ;
317 [label="gini = 0.0\nsamples = 1\nvalue = [0, 1]", fillcolor="#399de5"] ;
316 -> 317 ;
318 [label="gini = 0.0\nsamples = 1\nvalue = [1, 0]", fillcolor="#e58139"] ;
316 -> 318 ;
319 [label="X[12] <= 0.5\ngini = 0.083\nsamples = 23\nvalue = [22, 1]", fillcolor="#e68742"] ;
305 -> 319 ;
320 [label="gini = 0.0\nsamples = 17\nvalue = [17, 0]", fillcolor="#e58139"] ;
319 -> 320 ;
321 [label="X[5] <= 0.224\ngini = 0.278\nsamples = 6\nvalue = [5, 1]", fillcolor="#ea9a61"] ;
319 -> 321 ;
322 [label="gini = 0.0\nsamples = 1\nvalue = [0, 1]", fillcolor="#399de5"] ;
321 -> 322 ;
323 [label="gini = 0.0\nsamples = 5\nvalue = [5, 0]", fillcolor="#e58139"] ;
321 -> 323 ;
324 [label="gini = 0.0\nsamples = 32\nvalue = [32, 0]", fillcolor="#e58139"] ;
304 -> 324 ;
325 [label="X[6] <= 0.242\ngini = 0.256\nsamples = 106\nvalue = [90, 16]", fillcolor="#ea975c"] ;
303 -> 325 ;
326 [label="gini = 0.0\nsamples = 2\nvalue = [0, 2]", fillcolor="#399de5"] ;
325 -> 326 ;
327 [label="X[5] <= 0.034\ngini = 0.233\nsamples = 104\nvalue = [90, 14]", fillcolor="#e99558"] ;
325 -> 327 ;
328 [label="X[1] <= 0.896\ngini = 0.5\nsamples = 4\nvalue = [2, 2]", fillcolor="#ffffff"] ;
327 -> 328 ;
329 [label="gini = 0.0\nsamples = 2\nvalue = [2, 0]", fillcolor="#e58139"] ;
328 -> 329 ;
330 [label="gini = 0.0\nsamples = 2\nvalue = [0, 2]", fillcolor="#399de5"] ;
328 -> 330 ;
331 [label="X[15] <= 0.5\ngini = 0.211\nsamples = 100\nvalue = [88, 12]", fillcolor="#e99254"] ;
327 -> 331 ;
332 [label="X[1] <= 0.896\ngini = 0.172\nsamples = 84\nvalue = [76, 8]", fillcolor="#e88e4e"] ;
331 -> 332 ;
333 [label="X[6] <= 0.27\ngini = 0.097\nsamples = 59\nvalue = [56, 3]", fillcolor="#e68844"] ;
332 -> 333 ;
334 [label="X[6] <= 0.268\ngini = 0.204\nsamples = 26\nvalue = [23, 3]", fillcolor="#e89153"] ;
333 -> 334 ;
335 [label="X[5] <= 0.22\ngini = 0.153\nsamples = 24\nvalue = [22, 2]", fillcolor="#e78c4b"] ;
334 -> 335 ;
336 [label="X[7] <= 0.5\ngini = 0.1\nsamples = 19\nvalue = [18, 1]", fillcolor="#e68844"] ;
335 -> 336 ;
337 [label="gini = 0.0\nsamples = 15\nvalue = [15, 0]", fillcolor="#e58139"] ;
336 -> 337 ;
338 [label="X[6] <= 0.262\ngini = 0.375\nsamples = 4\nvalue = [3, 1]", fillcolor="#eeab7b"] ;
336 -> 338 ;
339 [label="X[0] <= 0.5\ngini = 0.5\nsamples = 2\nvalue = [1, 1]", fillcolor="#ffffff"] ;
338 -> 339 ;
340 [label="gini = 0.0\nsamples = 1\nvalue = [0, 1]", fillcolor="#399de5"] ;
339 -> 340 ;
341 [label="gini = 0.0\nsamples = 1\nvalue = [1, 0]", fillcolor="#e58139"] ;
339 -> 341 ;
342 [label="gini = 0.0\nsamples = 2\nvalue = [2, 0]", fillcolor="#e58139"] ;
338 -> 342 ;
343 [label="X[5] <= 0.413\ngini = 0.32\nsamples = 5\nvalue = [4, 1]", fillcolor="#eca06a"] ;
335 -> 343 ;
344 [label="gini = 0.0\nsamples = 1\nvalue = [0, 1]", fillcolor="#399de5"] ;
343 -> 344 ;
345 [label="gini = 0.0\nsamples = 4\nvalue = [4, 0]", fillcolor="#e58139"] ;
343 -> 345 ;
346 [label="X[1] <= 0.866\ngini = 0.5\nsamples = 2\nvalue = [1, 1]", fillcolor="#ffffff"] ;
334 -> 346 ;
347 [label="gini = 0.0\nsamples = 1\nvalue = [0, 1]", fillcolor="#399de5"] ;
346 -> 347 ;
348 [label="gini = 0.0\nsamples = 1\nvalue = [1, 0]", fillcolor="#e58139"] ;
346 -> 348 ;
349 [label="gini = 0.0\nsamples = 33\nvalue = [33, 0]", fillcolor="#e58139"] ;
333 -> 349 ;
350 [label="X[6] <= 0.28\ngini = 0.32\nsamples = 25\nvalue = [20, 5]", fillcolor="#eca06a"] ;
332 -> 350 ;
351 [label="X[3] <= 0.5\ngini = 0.1\nsamples = 19\nvalue = [18, 1]", fillcolor="#e68844"] ;
350 -> 351 ;
352 [label="gini = 0.0\nsamples = 15\nvalue = [15, 0]", fillcolor="#e58139"] ;
351 -> 352 ;
353 [label="X[1] <= 0.908\ngini = 0.375\nsamples = 4\nvalue = [3, 1]", fillcolor="#eeab7b"] ;
351 -> 353 ;
354 [label="gini = 0.0\nsamples = 1\nvalue = [0, 1]", fillcolor="#399de5"] ;
353 -> 354 ;
355 [label="gini = 0.0\nsamples = 3\nvalue = [3, 0]", fillcolor="#e58139"] ;
353 -> 355 ;
356 [label="X[6] <= 0.286\ngini = 0.444\nsamples = 6\nvalue = [2, 4]", fillcolor="#9ccef2"] ;
350 -> 356 ;
357 [label="gini = 0.0\nsamples = 3\nvalue = [0, 3]", fillcolor="#399de5"] ;
356 -> 357 ;
358 [label="X[1] <= 0.921\ngini = 0.444\nsamples = 3\nvalue = [2, 1]", fillcolor="#f2c09c"] ;
356 -> 358 ;
359 [label="gini = 0.0\nsamples = 1\nvalue = [1, 0]", fillcolor="#e58139"] ;
358 -> 359 ;
360 [label="X[5] <= 0.325\ngini = 0.5\nsamples = 2\nvalue = [1, 1]", fillcolor="#ffffff"] ;
358 -> 360 ;
361 [label="gini = 0.0\nsamples = 1\nvalue = [1, 0]", fillcolor="#e58139"] ;
360 -> 361 ;
362 [label="gini = 0.0\nsamples = 1\nvalue = [0, 1]", fillcolor="#399de5"] ;
360 -> 362 ;
363 [label="X[1] <= 0.835\ngini = 0.375\nsamples = 16\nvalue = [12, 4]", fillcolor="#eeab7b"] ;
331 -> 363 ;
364 [label="gini = 0.0\nsamples = 1\nvalue = [0, 1]", fillcolor="#399de5"] ;
363 -> 364 ;
365 [label="X[5] <= 0.101\ngini = 0.32\nsamples = 15\nvalue = [12, 3]", fillcolor="#eca06a"] ;
363 -> 365 ;
366 [label="gini = 0.0\nsamples = 5\nvalue = [5, 0]", fillcolor="#e58139"] ;
365 -> 366 ;
367 [label="X[5] <= 0.128\ngini = 0.42\nsamples = 10\nvalue = [7, 3]", fillcolor="#f0b78e"] ;
365 -> 367 ;
368 [label="gini = 0.0\nsamples = 1\nvalue = [0, 1]", fillcolor="#399de5"] ;
367 -> 368 ;
369 [label="X[6] <= 0.274\ngini = 0.346\nsamples = 9\nvalue = [7, 2]", fillcolor="#eca572"] ;
367 -> 369 ;
370 [label="X[10] <= 0.5\ngini = 0.5\nsamples = 4\nvalue = [2, 2]", fillcolor="#ffffff"] ;
369 -> 370 ;
371 [label="X[0] <= 0.5\ngini = 0.444\nsamples = 3\nvalue = [2, 1]", fillcolor="#f2c09c"] ;
370 -> 371 ;
372 [label="gini = 0.0\nsamples = 1\nvalue = [0, 1]", fillcolor="#399de5"] ;
371 -> 372 ;
373 [label="gini = 0.0\nsamples = 2\nvalue = [2, 0]", fillcolor="#e58139"] ;
371 -> 373 ;
374 [label="gini = 0.0\nsamples = 1\nvalue = [0, 1]", fillcolor="#399de5"] ;
370 -> 374 ;
375 [label="gini = 0.0\nsamples = 5\nvalue = [5, 0]", fillcolor="#e58139"] ;
369 -> 375 ;
376 [label="X[13] <= 0.5\ngini = 0.5\nsamples = 4\nvalue = [2, 2]", fillcolor="#ffffff"] ;
302 -> 376 ;
377 [label="gini = 0.0\nsamples = 2\nvalue = [2, 0]", fillcolor="#e58139"] ;
376 -> 377 ;
378 [label="gini = 0.0\nsamples = 2\nvalue = [0, 2]", fillcolor="#399de5"] ;
376 -> 378 ;
379 [label="X[10] <= 0.5\ngini = 0.112\nsamples = 84\nvalue = [79, 5]", fillcolor="#e78946"] ;
301 -> 379 ;
380 [label="X[5] <= 0.719\ngini = 0.035\nsamples = 56\nvalue = [55, 1]", fillcolor="#e5833d"] ;
379 -> 380 ;
381 [label="gini = 0.0\nsamples = 52\nvalue = [52, 0]", fillcolor="#e58139"] ;
380 -> 381 ;
382 [label="X[12] <= 0.5\ngini = 0.375\nsamples = 4\nvalue = [3, 1]", fillcolor="#eeab7b"] ;
380 -> 382 ;
383 [label="gini = 0.0\nsamples = 3\nvalue = [3, 0]", fillcolor="#e58139"] ;
382 -> 383 ;
384 [label="gini = 0.0\nsamples = 1\nvalue = [0, 1]", fillcolor="#399de5"] ;
382 -> 384 ;
385 [label="X[2] <= 0.5\ngini = 0.245\nsamples = 28\nvalue = [24, 4]", fillcolor="#e9965a"] ;
379 -> 385 ;
386 [label="X[5] <= 0.082\ngini = 0.095\nsamples = 20\nvalue = [19, 1]", fillcolor="#e68843"] ;
385 -> 386 ;
387 [label="X[5] <= 0.072\ngini = 0.278\nsamples = 6\nvalue = [5, 1]", fillcolor="#ea9a61"] ;
386 -> 387 ;
388 [label="gini = 0.0\nsamples = 5\nvalue = [5, 0]", fillcolor="#e58139"] ;
387 -> 388 ;
389 [label="gini = 0.0\nsamples = 1\nvalue = [0, 1]", fillcolor="#399de5"] ;
387 -> 389 ;
390 [label="gini = 0.0\nsamples = 14\nvalue = [14, 0]", fillcolor="#e58139"] ;
386 -> 390 ;
391 [label="X[6] <= 0.355\ngini = 0.469\nsamples = 8\nvalue = [5, 3]", fillcolor="#f5cdb0"] ;
385 -> 391 ;
392 [label="gini = 0.0\nsamples = 2\nvalue = [0, 2]", fillcolor="#399de5"] ;
391 -> 392 ;
393 [label="X[1] <= 0.884\ngini = 0.278\nsamples = 6\nvalue = [5, 1]", fillcolor="#ea9a61"] ;
391 -> 393 ;
394 [label="X[5] <= 0.316\ngini = 0.5\nsamples = 2\nvalue = [1, 1]", fillcolor="#ffffff"] ;
393 -> 394 ;
395 [label="gini = 0.0\nsamples = 1\nvalue = [1, 0]", fillcolor="#e58139"] ;
394 -> 395 ;
396 [label="gini = 0.0\nsamples = 1\nvalue = [0, 1]", fillcolor="#399de5"] ;
394 -> 396 ;
397 [label="gini = 0.0\nsamples = 4\nvalue = [4, 0]", fillcolor="#e58139"] ;
393 -> 397 ;
398 [label="X[5] <= 0.76\ngini = 0.315\nsamples = 46\nvalue = [37, 9]", fillcolor="#eba069"] ;
300 -> 398 ;
399 [label="gini = 0.0\nsamples = 2\nvalue = [0, 2]", fillcolor="#399de5"] ;
398 -> 399 ;
400 [label="X[9] <= 0.5\ngini = 0.268\nsamples = 44\nvalue = [37, 7]", fillcolor="#ea995e"] ;
398 -> 400 ;
401 [label="gini = 0.0\nsamples = 19\nvalue = [19, 0]", fillcolor="#e58139"] ;
400 -> 401 ;
402 [label="X[6] <= 0.357\ngini = 0.403\nsamples = 25\nvalue = [18, 7]", fillcolor="#efb286"] ;
400 -> 402 ;
403 [label="X[5] <= 0.788\ngini = 0.266\nsamples = 19\nvalue = [16, 3]", fillcolor="#ea995e"] ;
402 -> 403 ;
404 [label="X[12] <= 0.5\ngini = 0.5\nsamples = 4\nvalue = [2, 2]", fillcolor="#ffffff"] ;
403 -> 404 ;
405 [label="gini = 0.0\nsamples = 2\nvalue = [0, 2]", fillcolor="#399de5"] ;
404 -> 405 ;
406 [label="gini = 0.0\nsamples = 2\nvalue = [2, 0]", fillcolor="#e58139"] ;
404 -> 406 ;
407 [label="X[6] <= 0.237\ngini = 0.124\nsamples = 15\nvalue = [14, 1]", fillcolor="#e78a47"] ;
403 -> 407 ;
408 [label="X[12] <= 0.5\ngini = 0.444\nsamples = 3\nvalue = [2, 1]", fillcolor="#f2c09c"] ;
407 -> 408 ;
409 [label="gini = 0.0\nsamples = 1\nvalue = [0, 1]", fillcolor="#399de5"] ;
408 -> 409 ;
410 [label="gini = 0.0\nsamples = 2\nvalue = [2, 0]", fillcolor="#e58139"] ;
408 -> 410 ;
411 [label="gini = 0.0\nsamples = 12\nvalue = [12, 0]", fillcolor="#e58139"] ;
407 -> 411 ;
412 [label="X[6] <= 0.484\ngini = 0.444\nsamples = 6\nvalue = [2, 4]", fillcolor="#9ccef2"] ;
402 -> 412 ;
413 [label="gini = 0.0\nsamples = 3\nvalue = [0, 3]", fillcolor="#399de5"] ;
412 -> 413 ;
414 [label="X[6] <= 0.508\ngini = 0.444\nsamples = 3\nvalue = [2, 1]", fillcolor="#f2c09c"] ;
412 -> 414 ;
415 [label="gini = 0.0\nsamples = 2\nvalue = [2, 0]", fillcolor="#e58139"] ;
414 -> 415 ;
416 [label="gini = 0.0\nsamples = 1\nvalue = [0, 1]", fillcolor="#399de5"] ;
414 -> 416 ;
417 [label="gini = 0.0\nsamples = 1\nvalue = [0, 1]", fillcolor="#399de5"] ;
299 -> 417 ;
418 [label="X[5] <= 0.224\ngini = 0.344\nsamples = 335\nvalue = [261, 74]", fillcolor="#eca571"] ;
286 -> 418 ;
419 [label="X[6] <= 0.479\ngini = 0.287\nsamples = 196\nvalue = [162, 34]", fillcolor="#ea9b63"] ;
418 -> 419 ;
420 [label="X[2] <= 0.5\ngini = 0.281\nsamples = 195\nvalue = [162, 33]", fillcolor="#ea9b61"] ;
419 -> 420 ;
421 [label="X[6] <= 0.212\ngini = 0.237\nsamples = 153\nvalue = [132, 21]", fillcolor="#e99558"] ;
420 -> 421 ;
422 [label="X[13] <= 0.5\ngini = 0.386\nsamples = 46\nvalue = [34, 12]", fillcolor="#eead7f"] ;
421 -> 422 ;
423 [label="X[5] <= 0.048\ngini = 0.459\nsamples = 28\nvalue = [18, 10]", fillcolor="#f3c7a7"] ;
422 -> 423 ;
424 [label="gini = 0.0\nsamples = 4\nvalue = [4, 0]", fillcolor="#e58139"] ;
423 -> 424 ;
425 [label="X[5] <= 0.066\ngini = 0.486\nsamples = 24\nvalue = [14, 10]", fillcolor="#f8dbc6"] ;
423 -> 425 ;
426 [label="gini = 0.0\nsamples = 2\nvalue = [0, 2]", fillcolor="#399de5"] ;
425 -> 426 ;
427 [label="X[5] <= 0.081\ngini = 0.463\nsamples = 22\nvalue = [14, 8]", fillcolor="#f4c9aa"] ;
425 -> 427 ;
428 [label="gini = 0.0\nsamples = 3\nvalue = [3, 0]", fillcolor="#e58139"] ;
427 -> 428 ;
429 [label="X[5] <= 0.11\ngini = 0.488\nsamples = 19\nvalue = [11, 8]", fillcolor="#f8ddc9"] ;
427 -> 429 ;
430 [label="gini = 0.0\nsamples = 3\nvalue = [0, 3]", fillcolor="#399de5"] ;
429 -> 430 ;
431 [label="X[12] <= 0.5\ngini = 0.43\nsamples = 16\nvalue = [11, 5]", fillcolor="#f1ba93"] ;
429 -> 431 ;
432 [label="X[6] <= 0.171\ngini = 0.486\nsamples = 12\nvalue = [7, 5]", fillcolor="#f8dbc6"] ;
431 -> 432 ;
433 [label="gini = 0.0\nsamples = 2\nvalue = [0, 2]", fillcolor="#399de5"] ;
432 -> 433 ;
434 [label="X[6] <= 0.185\ngini = 0.42\nsamples = 10\nvalue = [7, 3]", fillcolor="#f0b78e"] ;
432 -> 434 ;
435 [label="gini = 0.0\nsamples = 4\nvalue = [4, 0]", fillcolor="#e58139"] ;
434 -> 435 ;
436 [label="X[6] <= 0.196\ngini = 0.5\nsamples = 6\nvalue = [3, 3]", fillcolor="#ffffff"] ;
434 -> 436 ;
437 [label="gini = 0.0\nsamples = 2\nvalue = [0, 2]", fillcolor="#399de5"] ;
436 -> 437 ;
438 [label="X[5] <= 0.167\ngini = 0.375\nsamples = 4\nvalue = [3, 1]", fillcolor="#eeab7b"] ;
436 -> 438 ;
439 [label="gini = 0.0\nsamples = 3\nvalue = [3, 0]", fillcolor="#e58139"] ;
438 -> 439 ;
440 [label="gini = 0.0\nsamples = 1\nvalue = [0, 1]", fillcolor="#399de5"] ;
438 -> 440 ;
441 [label="gini = 0.0\nsamples = 4\nvalue = [4, 0]", fillcolor="#e58139"] ;
431 -> 441 ;
442 [label="X[5] <= 0.107\ngini = 0.198\nsamples = 18\nvalue = [16, 2]", fillcolor="#e89152"] ;
422 -> 442 ;
443 [label="X[1] <= 0.957\ngini = 0.375\nsamples = 8\nvalue = [6, 2]", fillcolor="#eeab7b"] ;
442 -> 443 ;
444 [label="gini = 0.0\nsamples = 1\nvalue = [0, 1]", fillcolor="#399de5"] ;
443 -> 444 ;
445 [label="X[6] <= 0.171\ngini = 0.245\nsamples = 7\nvalue = [6, 1]", fillcolor="#e9965a"] ;
443 -> 445 ;
446 [label="gini = 0.0\nsamples = 1\nvalue = [0, 1]", fillcolor="#399de5"] ;
445 -> 446 ;
447 [label="gini = 0.0\nsamples = 6\nvalue = [6, 0]", fillcolor="#e58139"] ;
445 -> 447 ;
448 [label="gini = 0.0\nsamples = 10\nvalue = [10, 0]", fillcolor="#e58139"] ;
442 -> 448 ;
449 [label="X[14] <= 0.5\ngini = 0.154\nsamples = 107\nvalue = [98, 9]", fillcolor="#e78d4b"] ;
421 -> 449 ;
450 [label="X[1] <= 0.957\ngini = 0.062\nsamples = 62\nvalue = [60, 2]", fillcolor="#e68540"] ;
449 -> 450 ;
451 [label="X[4] <= 0.5\ngini = 0.147\nsamples = 25\nvalue = [23, 2]", fillcolor="#e78c4a"] ;
450 -> 451 ;
452 [label="X[1] <= 0.945\ngini = 0.444\nsamples = 3\nvalue = [2, 1]", fillcolor="#f2c09c"] ;
451 -> 452 ;
453 [label="gini = 0.0\nsamples = 1\nvalue = [0, 1]", fillcolor="#399de5"] ;
452 -> 453 ;
454 [label="gini = 0.0\nsamples = 2\nvalue = [2, 0]", fillcolor="#e58139"] ;
452 -> 454 ;
455 [label="X[5] <= 0.055\ngini = 0.087\nsamples = 22\nvalue = [21, 1]", fillcolor="#e68742"] ;
451 -> 455 ;
456 [label="X[5] <= 0.025\ngini = 0.245\nsamples = 7\nvalue = [6, 1]", fillcolor="#e9965a"] ;
455 -> 456 ;
457 [label="gini = 0.0\nsamples = 6\nvalue = [6, 0]", fillcolor="#e58139"] ;
456 -> 457 ;
458 [label="gini = 0.0\nsamples = 1\nvalue = [0, 1]", fillcolor="#399de5"] ;
456 -> 458 ;
459 [label="gini = 0.0\nsamples = 15\nvalue = [15, 0]", fillcolor="#e58139"] ;
455 -> 459 ;
460 [label="gini = 0.0\nsamples = 37\nvalue = [37, 0]", fillcolor="#e58139"] ;
450 -> 460 ;
461 [label="X[0] <= 0.5\ngini = 0.263\nsamples = 45\nvalue = [38, 7]", fillcolor="#ea985d"] ;
449 -> 461 ;
462 [label="X[1] <= 0.994\ngini = 0.121\nsamples = 31\nvalue = [29, 2]", fillcolor="#e78a47"] ;
461 -> 462 ;
463 [label="X[6] <= 0.349\ngini = 0.067\nsamples = 29\nvalue = [28, 1]", fillcolor="#e68640"] ;
462 -> 463 ;
464 [label="gini = 0.0\nsamples = 19\nvalue = [19, 0]", fillcolor="#e58139"] ;
463 -> 464 ;
465 [label="X[6] <= 0.352\ngini = 0.18\nsamples = 10\nvalue = [9, 1]", fillcolor="#e88f4f"] ;
463 -> 465 ;
466 [label="gini = 0.0\nsamples = 1\nvalue = [0, 1]", fillcolor="#399de5"] ;
465 -> 466 ;
467 [label="gini = 0.0\nsamples = 9\nvalue = [9, 0]", fillcolor="#e58139"] ;
465 -> 467 ;
468 [label="X[5] <= 0.067\ngini = 0.5\nsamples = 2\nvalue = [1, 1]", fillcolor="#ffffff"] ;
462 -> 468 ;
469 [label="gini = 0.0\nsamples = 1\nvalue = [0, 1]", fillcolor="#399de5"] ;
468 -> 469 ;
470 [label="gini = 0.0\nsamples = 1\nvalue = [1, 0]", fillcolor="#e58139"] ;
468 -> 470 ;
471 [label="X[5] <= 0.151\ngini = 0.459\nsamples = 14\nvalue = [9, 5]", fillcolor="#f3c7a7"] ;
461 -> 471 ;
472 [label="X[5] <= 0.098\ngini = 0.298\nsamples = 11\nvalue = [9, 2]", fillcolor="#eb9d65"] ;
471 -> 472 ;
473 [label="X[5] <= 0.062\ngini = 0.444\nsamples = 6\nvalue = [4, 2]", fillcolor="#f2c09c"] ;
472 -> 473 ;
474 [label="gini = 0.0\nsamples = 4\nvalue = [4, 0]", fillcolor="#e58139"] ;
473 -> 474 ;
475 [label="gini = 0.0\nsamples = 2\nvalue = [0, 2]", fillcolor="#399de5"] ;
473 -> 475 ;
476 [label="gini = 0.0\nsamples = 5\nvalue = [5, 0]", fillcolor="#e58139"] ;
472 -> 476 ;
477 [label="gini = 0.0\nsamples = 3\nvalue = [0, 3]", fillcolor="#399de5"] ;
471 -> 477 ;
478 [label="X[4] <= 0.5\ngini = 0.408\nsamples = 42\nvalue = [30, 12]", fillcolor="#efb388"] ;
420 -> 478 ;
479 [label="X[0] <= 0.5\ngini = 0.49\nsamples = 7\nvalue = [3, 4]", fillcolor="#cee6f8"] ;
478 -> 479 ;
480 [label="X[5] <= 0.04\ngini = 0.32\nsamples = 5\nvalue = [1, 4]", fillcolor="#6ab6ec"] ;
479 -> 480 ;
481 [label="X[10] <= 0.5\ngini = 0.5\nsamples = 2\nvalue = [1, 1]", fillcolor="#ffffff"] ;
480 -> 481 ;
482 [label="gini = 0.0\nsamples = 1\nvalue = [1, 0]", fillcolor="#e58139"] ;
481 -> 482 ;
483 [label="gini = 0.0\nsamples = 1\nvalue = [0, 1]", fillcolor="#399de5"] ;
481 -> 483 ;
484 [label="gini = 0.0\nsamples = 3\nvalue = [0, 3]", fillcolor="#399de5"] ;
480 -> 484 ;
485 [label="gini = 0.0\nsamples = 2\nvalue = [2, 0]", fillcolor="#e58139"] ;
479 -> 485 ;
486 [label="X[5] <= 0.01\ngini = 0.353\nsamples = 35\nvalue = [27, 8]", fillcolor="#eda674"] ;
478 -> 486 ;
487 [label="gini = 0.0\nsamples = 1\nvalue = [0, 1]", fillcolor="#399de5"] ;
486 -> 487 ;
488 [label="X[3] <= 0.5\ngini = 0.327\nsamples = 34\nvalue = [27, 7]", fillcolor="#eca26c"] ;
486 -> 488 ;
489 [label="X[5] <= 0.053\ngini = 0.393\nsamples = 26\nvalue = [19, 7]", fillcolor="#efaf82"] ;
488 -> 489 ;
490 [label="gini = 0.0\nsamples = 5\nvalue = [5, 0]", fillcolor="#e58139"] ;
489 -> 490 ;
491 [label="X[5] <= 0.127\ngini = 0.444\nsamples = 21\nvalue = [14, 7]", fillcolor="#f2c09c"] ;
489 -> 491 ;
492 [label="X[9] <= 0.5\ngini = 0.497\nsamples = 13\nvalue = [7, 6]", fillcolor="#fbede3"] ;
491 -> 492 ;
493 [label="X[5] <= 0.069\ngini = 0.346\nsamples = 9\nvalue = [7, 2]", fillcolor="#eca572"] ;
492 -> 493 ;
494 [label="gini = 0.0\nsamples = 1\nvalue = [0, 1]", fillcolor="#399de5"] ;
493 -> 494 ;
495 [label="X[1] <= 0.969\ngini = 0.219\nsamples = 8\nvalue = [7, 1]", fillcolor="#e99355"] ;
493 -> 495 ;
496 [label="gini = 0.0\nsamples = 5\nvalue = [5, 0]", fillcolor="#e58139"] ;
495 -> 496 ;
497 [label="X[6] <= 0.27\ngini = 0.444\nsamples = 3\nvalue = [2, 1]", fillcolor="#f2c09c"] ;
495 -> 497 ;
498 [label="gini = 0.0\nsamples = 2\nvalue = [2, 0]", fillcolor="#e58139"] ;
497 -> 498 ;
499 [label="gini = 0.0\nsamples = 1\nvalue = [0, 1]", fillcolor="#399de5"] ;
497 -> 499 ;
500 [label="gini = 0.0\nsamples = 4\nvalue = [0, 4]", fillcolor="#399de5"] ;
492 -> 500 ;
501 [label="X[0] <= 0.5\ngini = 0.219\nsamples = 8\nvalue = [7, 1]", fillcolor="#e99355"] ;
491 -> 501 ;
502 [label="gini = 0.0\nsamples = 6\nvalue = [6, 0]", fillcolor="#e58139"] ;
501 -> 502 ;
503 [label="X[6] <= 0.266\ngini = 0.5\nsamples = 2\nvalue = [1, 1]", fillcolor="#ffffff"] ;
501 -> 503 ;
504 [label="gini = 0.0\nsamples = 1\nvalue = [0, 1]", fillcolor="#399de5"] ;
503 -> 504 ;
505 [label="gini = 0.0\nsamples = 1\nvalue = [1, 0]", fillcolor="#e58139"] ;
503 -> 505 ;
506 [label="gini = 0.0\nsamples = 8\nvalue = [8, 0]", fillcolor="#e58139"] ;
488 -> 506 ;
507 [label="gini = 0.0\nsamples = 1\nvalue = [0, 1]", fillcolor="#399de5"] ;
419 -> 507 ;
508 [label="X[10] <= 0.5\ngini = 0.41\nsamples = 139\nvalue = [99, 40]", fillcolor="#f0b489"] ;
418 -> 508 ;
509 [label="X[5] <= 0.277\ngini = 0.455\nsamples = 80\nvalue = [52, 28]", fillcolor="#f3c5a4"] ;
508 -> 509 ;
510 [label="X[6] <= 0.262\ngini = 0.473\nsamples = 13\nvalue = [5, 8]", fillcolor="#b5daf5"] ;
509 -> 510 ;
511 [label="gini = 0.0\nsamples = 4\nvalue = [0, 4]", fillcolor="#399de5"] ;
510 -> 511 ;
512 [label="X[6] <= 0.303\ngini = 0.494\nsamples = 9\nvalue = [5, 4]", fillcolor="#fae6d7"] ;
510 -> 512 ;
513 [label="X[5] <= 0.248\ngini = 0.278\nsamples = 6\nvalue = [5, 1]", fillcolor="#ea9a61"] ;
512 -> 513 ;
514 [label="gini = 0.0\nsamples = 5\nvalue = [5, 0]", fillcolor="#e58139"] ;
513 -> 514 ;
515 [label="gini = 0.0\nsamples = 1\nvalue = [0, 1]", fillcolor="#399de5"] ;
513 -> 515 ;
516 [label="gini = 0.0\nsamples = 3\nvalue = [0, 3]", fillcolor="#399de5"] ;
512 -> 516 ;
517 [label="X[3] <= 0.5\ngini = 0.419\nsamples = 67\nvalue = [47, 20]", fillcolor="#f0b78d"] ;
509 -> 517 ;
518 [label="X[5] <= 0.931\ngini = 0.335\nsamples = 47\nvalue = [37, 10]", fillcolor="#eca36f"] ;
517 -> 518 ;
519 [label="X[5] <= 0.527\ngini = 0.315\nsamples = 46\nvalue = [37, 9]", fillcolor="#eba069"] ;
518 -> 519 ;
520 [label="X[4] <= 0.5\ngini = 0.117\nsamples = 16\nvalue = [15, 1]", fillcolor="#e78946"] ;
519 -> 520 ;
521 [label="X[0] <= 0.5\ngini = 0.5\nsamples = 2\nvalue = [1, 1]", fillcolor="#ffffff"] ;
520 -> 521 ;
522 [label="gini = 0.0\nsamples = 1\nvalue = [0, 1]", fillcolor="#399de5"] ;
521 -> 522 ;
523 [label="gini = 0.0\nsamples = 1\nvalue = [1, 0]", fillcolor="#e58139"] ;
521 -> 523 ;
524 [label="gini = 0.0\nsamples = 14\nvalue = [14, 0]", fillcolor="#e58139"] ;
520 -> 524 ;
525 [label="X[5] <= 0.632\ngini = 0.391\nsamples = 30\nvalue = [22, 8]", fillcolor="#eeaf81"] ;
519 -> 525 ;
526 [label="X[2] <= 0.5\ngini = 0.32\nsamples = 5\nvalue = [1, 4]", fillcolor="#6ab6ec"] ;
525 -> 526 ;
527 [label="gini = 0.0\nsamples = 4\nvalue = [0, 4]", fillcolor="#399de5"] ;
526 -> 527 ;
528 [label="gini = 0.0\nsamples = 1\nvalue = [1, 0]", fillcolor="#e58139"] ;
526 -> 528 ;
529 [label="X[5] <= 0.696\ngini = 0.269\nsamples = 25\nvalue = [21, 4]", fillcolor="#ea995f"] ;
525 -> 529 ;
530 [label="X[6] <= 0.274\ngini = 0.48\nsamples = 5\nvalue = [3, 2]", fillcolor="#f6d5bd"] ;
529 -> 530 ;
531 [label="gini = 0.0\nsamples = 3\nvalue = [3, 0]", fillcolor="#e58139"] ;
530 -> 531 ;
532 [label="gini = 0.0\nsamples = 2\nvalue = [0, 2]", fillcolor="#399de5"] ;
530 -> 532 ;
533 [label="X[6] <= 0.253\ngini = 0.18\nsamples = 20\nvalue = [18, 2]", fillcolor="#e88f4f"] ;
529 -> 533 ;
534 [label="X[6] <= 0.229\ngini = 0.408\nsamples = 7\nvalue = [5, 2]", fillcolor="#efb388"] ;
533 -> 534 ;
535 [label="gini = 0.0\nsamples = 4\nvalue = [4, 0]", fillcolor="#e58139"] ;
534 -> 535 ;
536 [label="X[0] <= 0.5\ngini = 0.444\nsamples = 3\nvalue = [1, 2]", fillcolor="#9ccef2"] ;
534 -> 536 ;
537 [label="gini = 0.0\nsamples = 1\nvalue = [1, 0]", fillcolor="#e58139"] ;
536 -> 537 ;
538 [label="gini = 0.0\nsamples = 2\nvalue = [0, 2]", fillcolor="#399de5"] ;
536 -> 538 ;
539 [label="gini = 0.0\nsamples = 13\nvalue = [13, 0]", fillcolor="#e58139"] ;
533 -> 539 ;
540 [label="gini = 0.0\nsamples = 1\nvalue = [0, 1]", fillcolor="#399de5"] ;
518 -> 540 ;
541 [label="X[5] <= 0.331\ngini = 0.5\nsamples = 20\nvalue = [10, 10]", fillcolor="#ffffff"] ;
517 -> 541 ;
542 [label="gini = 0.0\nsamples = 4\nvalue = [4, 0]", fillcolor="#e58139"] ;
541 -> 542 ;
543 [label="X[2] <= 0.5\ngini = 0.469\nsamples = 16\nvalue = [6, 10]", fillcolor="#b0d8f5"] ;
541 -> 543 ;
544 [label="X[6] <= 0.241\ngini = 0.32\nsamples = 10\nvalue = [2, 8]", fillcolor="#6ab6ec"] ;
543 -> 544 ;
545 [label="X[5] <= 0.543\ngini = 0.444\nsamples = 3\nvalue = [2, 1]", fillcolor="#f2c09c"] ;
544 -> 545 ;
546 [label="gini = 0.0\nsamples = 1\nvalue = [0, 1]", fillcolor="#399de5"] ;
545 -> 546 ;
547 [label="gini = 0.0\nsamples = 2\nvalue = [2, 0]", fillcolor="#e58139"] ;
545 -> 547 ;
548 [label="gini = 0.0\nsamples = 7\nvalue = [0, 7]", fillcolor="#399de5"] ;
544 -> 548 ;
549 [label="X[14] <= 0.5\ngini = 0.444\nsamples = 6\nvalue = [4, 2]", fillcolor="#f2c09c"] ;
543 -> 549 ;
550 [label="X[5] <= 0.747\ngini = 0.444\nsamples = 3\nvalue = [1, 2]", fillcolor="#9ccef2"] ;
549 -> 550 ;
551 [label="gini = 0.0\nsamples = 2\nvalue = [0, 2]", fillcolor="#399de5"] ;
550 -> 551 ;
552 [label="gini = 0.0\nsamples = 1\nvalue = [1, 0]", fillcolor="#e58139"] ;
550 -> 552 ;
553 [label="gini = 0.0\nsamples = 3\nvalue = [3, 0]", fillcolor="#e58139"] ;
549 -> 553 ;
554 [label="X[5] <= 0.669\ngini = 0.324\nsamples = 59\nvalue = [47, 12]", fillcolor="#eca16c"] ;
508 -> 554 ;
555 [label="X[5] <= 0.664\ngini = 0.415\nsamples = 34\nvalue = [24, 10]", fillcolor="#f0b58b"] ;
554 -> 555 ;
556 [label="X[6] <= 0.205\ngini = 0.397\nsamples = 33\nvalue = [24, 9]", fillcolor="#efb083"] ;
555 -> 556 ;
557 [label="X[14] <= 0.5\ngini = 0.494\nsamples = 9\nvalue = [5, 4]", fillcolor="#fae6d7"] ;
556 -> 557 ;
558 [label="X[6] <= 0.196\ngini = 0.278\nsamples = 6\nvalue = [5, 1]", fillcolor="#ea9a61"] ;
557 -> 558 ;
559 [label="gini = 0.0\nsamples = 4\nvalue = [4, 0]", fillcolor="#e58139"] ;
558 -> 559 ;
560 [label="X[15] <= 0.5\ngini = 0.5\nsamples = 2\nvalue = [1, 1]", fillcolor="#ffffff"] ;
558 -> 560 ;
561 [label="gini = 0.0\nsamples = 1\nvalue = [0, 1]", fillcolor="#399de5"] ;
560 -> 561 ;
562 [label="gini = 0.0\nsamples = 1\nvalue = [1, 0]", fillcolor="#e58139"] ;
560 -> 562 ;
563 [label="gini = 0.0\nsamples = 3\nvalue = [0, 3]", fillcolor="#399de5"] ;
557 -> 563 ;
564 [label="X[1] <= 0.957\ngini = 0.33\nsamples = 24\nvalue = [19, 5]", fillcolor="#eca26d"] ;
556 -> 564 ;
565 [label="X[0] <= 0.5\ngini = 0.486\nsamples = 12\nvalue = [7, 5]", fillcolor="#f8dbc6"] ;
564 -> 565 ;
566 [label="X[5] <= 0.35\ngini = 0.346\nsamples = 9\nvalue = [7, 2]", fillcolor="#eca572"] ;
565 -> 566 ;
567 [label="X[6] <= 0.289\ngini = 0.444\nsamples = 3\nvalue = [1, 2]", fillcolor="#9ccef2"] ;
566 -> 567 ;
568 [label="gini = 0.0\nsamples = 1\nvalue = [1, 0]", fillcolor="#e58139"] ;
567 -> 568 ;
569 [label="gini = 0.0\nsamples = 2\nvalue = [0, 2]", fillcolor="#399de5"] ;
567 -> 569 ;
570 [label="gini = 0.0\nsamples = 6\nvalue = [6, 0]", fillcolor="#e58139"] ;
566 -> 570 ;
571 [label="gini = 0.0\nsamples = 3\nvalue = [0, 3]", fillcolor="#399de5"] ;
565 -> 571 ;
572 [label="gini = 0.0\nsamples = 12\nvalue = [12, 0]", fillcolor="#e58139"] ;
564 -> 572 ;
573 [label="gini = 0.0\nsamples = 1\nvalue = [0, 1]", fillcolor="#399de5"] ;
555 -> 573 ;
574 [label="X[6] <= 0.252\ngini = 0.147\nsamples = 25\nvalue = [23, 2]", fillcolor="#e78c4a"] ;
554 -> 574 ;
575 [label="X[6] <= 0.233\ngini = 0.346\nsamples = 9\nvalue = [7, 2]", fillcolor="#eca572"] ;
574 -> 575 ;
576 [label="gini = 0.0\nsamples = 6\nvalue = [6, 0]", fillcolor="#e58139"] ;
575 -> 576 ;
577 [label="X[5] <= 0.82\ngini = 0.444\nsamples = 3\nvalue = [1, 2]", fillcolor="#9ccef2"] ;
575 -> 577 ;
578 [label="gini = 0.0\nsamples = 2\nvalue = [0, 2]", fillcolor="#399de5"] ;
577 -> 578 ;
579 [label="gini = 0.0\nsamples = 1\nvalue = [1, 0]", fillcolor="#e58139"] ;
577 -> 579 ;
580 [label="gini = 0.0\nsamples = 16\nvalue = [16, 0]", fillcolor="#e58139"] ;
574 -> 580 ;
}